<?xml version="1.0"?>
<opencv_storage>
<stage11>
  <maxWeakCount>5</maxWeakCount>
  <stageThreshold>-8.0192160606384277e-01</stageThreshold>
  <weakClassifiers>
    <_>
      <internalNodes>
        0 -1 156622 -111619265 1397395697 -589517521 -355274319
        903988223 -508530608 -112751708 -151850120</internalNodes>
      <leafValues>
        -7.9457366466522217e-01 7.4723249673843384e-01</leafValues></_>
    <_>
      <internalNodes>
        0 -1 234454 -6295133 -850279646 287015138 1361041601 -599282549
        1493270659 1626182351 1470886363</internalNodes>
      <leafValues>
        -7.6014631986618042e-01 7.1835970878601074e-01</leafValues></_>
    <_>
      <internalNodes>
        0 -1 153085 -6299649 184685919 -931889071 -547110681 1908918411
        -29736880 -1668873589 -12908223</internalNodes>
      <leafValues>
        -7.3400789499282837e-01 7.3185425996780396e-01</leafValues></_>
    <_>
      <internalNodes>
        0 -1 229417 -559940309 -150612221 1343344723 -135662191
        -762811493 151769282 -1207440695 -40901697</internalNodes>
      <leafValues>
        -7.1146368980407715e-01 7.7438968420028687e-01</leafValues></_>
    <_>
      <internalNodes>
        0 -1 183048 1428150239 -2147311389 1168881998 318836736
        1073793153 -2147336057 -1600257825 -18149367</internalNodes>
      <leafValues>
        -7.5012260675430298e-01 7.3240774869918823e-01</leafValues></_></weakClassifiers></stage11>
</opencv_storage>
