<?xml version="1.0"?>
<opencv_storage>
<stage18>
  <maxWeakCount>5</maxWeakCount>
  <stageThreshold>-1.0783152580261230e+00</stageThreshold>
  <weakClassifiers>
    <_>
      <internalNodes>
        0 -1 126201 -801846867 -804200159 -1023346383 -535736281
        -532627069 -2146897230 -1587492181 -224868732</internalNodes>
      <leafValues>
        -7.1544712781906128e-01 6.7870038747787476e-01</leafValues></_>
    <_>
      <internalNodes>
        0 -1 113854 -49736353 687940655 1595798879 -591572399
        -1474041576 864045736 -1151926206 -106110296</internalNodes>
      <leafValues>
        -6.9257056713104248e-01 6.3204252719879150e-01</leafValues></_>
    <_>
      <internalNodes>
        0 -1 239828 -36709910 -1006623997 2034325525 -553435132
        -1593259507 17105057 1669642382 2028192411</internalNodes>
      <leafValues>
        -7.3977386951446533e-01 5.7841897010803223e-01</leafValues></_>
    <_>
      <internalNodes>
        0 -1 223467 -503070141 -502046365 -2092750595 -930795519
        -805061933 209762306 -787377229 2140922755</internalNodes>
      <leafValues>
        -7.8564500808715820e-01 5.7947409152984619e-01</leafValues></_>
    <_>
      <internalNodes>
        0 -1 189268 -119685193 -799879015 -1606381537 -1056962447
        -1041125209 -1608384383 -1059055593 -123115262</internalNodes>
      <leafValues>
        -7.8418427705764771e-01 5.3692847490310669e-01</leafValues></_></weakClassifiers></stage18>
</opencv_storage>
