<?xml version="1.0"?>
<opencv_storage>
<stage14>
  <maxWeakCount>6</maxWeakCount>
  <stageThreshold>-1.6026617288589478e+00</stageThreshold>
  <weakClassifiers>
    <_>
      <internalNodes>
        0 -1 172914 -254206465 1905837506 -1988029155 -619703033
        -1000602145 -532360843 -1145035299 -509931053</internalNodes>
      <leafValues>
        -8.9176470041275024e-01 6.6297870874404907e-01</leafValues></_>
    <_>
      <internalNodes>
        0 -1 129234 -583558689 856768789 269555359 -1926116519
        -1971158881 -1089394134 42588443 -1424111413</internalNodes>
      <leafValues>
        -7.2223204374313354e-01 6.4553499221801758e-01</leafValues></_>
    <_>
      <internalNodes>
        0 -1 211641 -1068908406 -749739283 -1073004479 -675552537 32970
        1099780309 -1056193397 -912276517</internalNodes>
      <leafValues>
        -6.6341137886047363e-01 7.2069126367568970e-01</leafValues></_>
    <_>
      <internalNodes>
        0 -1 132639 -1877880615 1895825536 -792715717 -791396351
        -2139062063 -1043292000 -1601661719 -1044344420</internalNodes>
      <leafValues>
        -7.3321801424026489e-01 6.5124291181564331e-01</leafValues></_>
    <_>
      <internalNodes>
        0 -1 197298 -975382733 -641728252 357056539 -582121443
        -1999486966 1143472131 -1970371573 2094430426</internalNodes>
      <leafValues>
        -7.8783214092254639e-01 5.8705317974090576e-01</leafValues></_>
    <_>
      <internalNodes>
        0 -1 194559 -456692225 -2147449831 1637163009 -770111477
        1350633814 -402620414 40901563 -620774705</internalNodes>
      <leafValues>
        -7.3605906963348389e-01 6.4105308055877686e-01</leafValues></_></weakClassifiers></stage14>
</opencv_storage>
