<?xml version="1.0"?>
<opencv_storage>
<stage8>
  <maxWeakCount>4</maxWeakCount>
  <stageThreshold>-1.5372359752655029e+00</stageThreshold>
  <weakClassifiers>
    <_>
      <internalNodes>
        0 -1 181821 998243327 -72355701 -787939270 -366747608 2040756527
        -142466982 723417659 -39294449</internalNodes>
      <leafValues>
        -7.9962193965911865e-01 7.6844072341918945e-01</leafValues></_>
    <_>
      <internalNodes>
        0 -1 144105 -1692970497 -11197163 823132315 521734914 -536835909
        -1180564839 17053535 -1101472790</internalNodes>
      <leafValues>
        -7.8775393962860107e-01 7.1118026971817017e-01</leafValues></_>
    <_>
      <internalNodes>
        0 -1 136562 -194657397 -49259611 416319519 -34904049 -257913937
        -1174306641 -150761281 -4222529</internalNodes>
      <leafValues>
        -7.8159946203231812e-01 6.9192922115325928e-01</leafValues></_>
    <_>
      <internalNodes>
        0 -1 223358 -972562425 -498773903 -1543454381 1423557443
        -1036912733 1166016774 1644421517 -354688873</internalNodes>
      <leafValues>
        -7.3632317781448364e-01 7.5365251302719116e-01</leafValues></_></weakClassifiers></stage8>
</opencv_storage>
