<?xml version="1.0"?>
<opencv_storage>
<cascade>
  <stageType>BOOST</stageType>
  <featureType>LBP</featureType>
  <height>40</height>
  <width>80</width>
  <stageParams>
    <boostType>GAB</boostType>
    <minHitRate>9.9900001287460327e-01</minHitRate>
    <maxFalseAlarm>5.0000000000000000e-01</maxFalseAlarm>
    <weightTrimRate>9.4999999999999996e-01</weightTrimRate>
    <maxDepth>1</maxDepth>
    <maxWeakCount>100</maxWeakCount></stageParams>
  <featureParams>
    <maxCatCount>256</maxCatCount>
    <featSize>1</featSize></featureParams>
  <stageNum>20</stageNum>
  <stages>
    <!-- stage 0 -->
    <_>
      <maxWeakCount>2</maxWeakCount>
      <stageThreshold>-7.7424742281436920e-02</stageThreshold>
      <weakClassifiers>
        <_>
          <internalNodes>
            0 -1 32 -716996129 -720961341 16777217 -146603703 1090617531
            -75464565 1216482011 -6305281</internalNodes>
          <leafValues>
            -9.6545767784118652e-01 9.3927520513534546e-01</leafValues></_>
        <_>
          <internalNodes>
            0 -1 42 -922247029 -581762991 -1056370541 -649490109
            -2147316757 -1878425598 -1073626741 -2108981</internalNodes>
          <leafValues>
            -9.7723847627639771e-01 8.8803297281265259e-01</leafValues></_></weakClassifiers></_>
    <!-- stage 1 -->
    <_>
      <maxWeakCount>2</maxWeakCount>
      <stageThreshold>-5.5604416877031326e-02</stageThreshold>
      <weakClassifiers>
        <_>
          <internalNodes>
            0 -1 44 -1899163913 -539159083 -981403681 -572178211
            -919015681 -1182105445 -132258833 -69486373</internalNodes>
          <leafValues>
            -9.5390069484710693e-01 9.0540540218353271e-01</leafValues></_>
        <_>
          <internalNodes>
            0 -1 17 -15860737 -574009081 1363235287 -550383473
            -721223281 -914290551 -1114832177 -7650421</internalNodes>
          <leafValues>
            -8.9648425579071045e-01 8.9829629659652710e-01</leafValues></_></weakClassifiers></_>
    <!-- stage 2 -->
    <_>
      <maxWeakCount>3</maxWeakCount>
      <stageThreshold>-1.0109277963638306e+00</stageThreshold>
      <weakClassifiers>
        <_>
          <internalNodes>
            0 -1 34 -808473633 1360518079 -233327233 -155528577
            -1007967233 -4536177 -410267205 -349455426</internalNodes>
          <leafValues>
            -9.0723562240600586e-01 8.3788877725601196e-01</leafValues></_>
        <_>
          <internalNodes>
            0 -1 12 -27405997 -168357557 1905316119 -3682029 -318445567
            -394098432 -243254781 -120853489</internalNodes>
          <leafValues>
            -8.6911720037460327e-01 8.0483186244964600e-01</leafValues></_>
        <_>
          <internalNodes>
            0 -1 9 -265161253 320997896 285327767 287388463 -770457169
            -2109504870 1111722747 524282619</internalNodes>
          <leafValues>
            -8.5684508085250854e-01 7.6542502641677856e-01</leafValues></_></weakClassifiers></_>
    <!-- stage 3 -->
    <_>
      <maxWeakCount>3</maxWeakCount>
      <stageThreshold>-9.4038200378417969e-01</stageThreshold>
      <weakClassifiers>
        <_>
          <internalNodes>
            0 -1 59 -184287733 -637415123 -1040129783 -909422577
            -266797047 -1974943485 -360420321 -123770817</internalNodes>
          <leafValues>
            -9.0548205375671387e-01 8.2072830200195312e-01</leafValues></_>
        <_>
          <internalNodes>
            0 -1 20 -8257 -1 -268447745 -1 1073713071 2147454895
            1610583999 -8193</internalNodes>
          <leafValues>
            -8.1075012683868408e-01 8.3588933944702148e-01</leafValues></_>
        <_>
          <internalNodes>
            0 -1 14 1352331487 -1342144366 1628527693 -783876092
            -1450983777 -268402687 -1366586437 -5533221</internalNodes>
          <leafValues>
            -8.6784452199935913e-01 7.7585011720657349e-01</leafValues></_></weakClassifiers></_>
    <!-- stage 4 -->
    <_>
      <maxWeakCount>4</maxWeakCount>
      <stageThreshold>-1.7064725160598755e+00</stageThreshold>
      <weakClassifiers>
        <_>
          <internalNodes>
            0 -1 40 -575174689 -8342949 1258358751 -108210434 -74775561
            -613940555 -259335203 -203164538</internalNodes>
          <leafValues>
            -9.3469387292861938e-01 7.7297300100326538e-01</leafValues></_>
        <_>
          <internalNodes>
            0 -1 10 -783024641 -754778109 1426277499 1463108869
            -1073634817 2130903983 -1056930821 439060617</internalNodes>
          <leafValues>
            -8.3631670475006104e-01 7.6852136850357056e-01</leafValues></_>
        <_>
          <internalNodes>
            0 -1 37 -14698605 -792637375 -2147409787 -1794992122
            -334397249 -2136997725 -2003195765 -1647316029</internalNodes>
          <leafValues>
            -7.7349150180816650e-01 8.0192989110946655e-01</leafValues></_>
        <_>
          <internalNodes>
            0 -1 43 545390559 -606289755 -787091043 -116571776
            -368317749 -119401568 -581193269 -475006322</internalNodes>
          <leafValues>
            -8.6963731050491333e-01 6.9297337532043457e-01</leafValues></_></weakClassifiers></_>
    <!-- stage 5 -->
    <_>
      <maxWeakCount>2</maxWeakCount>
      <stageThreshold>-1.8462288379669189e-01</stageThreshold>
      <weakClassifiers>
        <_>
          <internalNodes>
            0 -1 46 -213389569 1505908559 16975173 159201283 2090263179
            34229378 49260411 1605102543</internalNodes>
          <leafValues>
            -8.7475538253784180e-01 7.7777779102325439e-01</leafValues></_>
        <_>
          <internalNodes>
            0 -1 3 -263120929 2100402131 671386911 -44842623 835328955
            -159856636 546470814 -74754421</internalNodes>
          <leafValues>
            -9.2132973670959473e-01 6.9013249874114990e-01</leafValues></_></weakClassifiers></_>
    <!-- stage 6 -->
    <_>
      <maxWeakCount>3</maxWeakCount>
      <stageThreshold>-9.1627526283264160e-01</stageThreshold>
      <weakClassifiers>
        <_>
          <internalNodes>
            0 -1 33 -783158789 -1915494349 -784216333 -117093309
            -662442785 11584129 1619048625 1018724393</internalNodes>
          <leafValues>
            -8.9937108755111694e-01 7.3820126056671143e-01</leafValues></_>
        <_>
          <internalNodes>
            0 -1 27 -2129931265 -982969 -1856798707 -49721196
            -2068975441 -661913333 -1484009137 -1145322002</internalNodes>
          <leafValues>
            -8.0891805887222290e-01 7.4669736623764038e-01</leafValues></_>
        <_>
          <internalNodes>
            0 -1 23 -804004385 -116717566 1164002639 1906399825
            -1064373832 -132054783 1905182730 -15863653</internalNodes>
          <leafValues>
            -7.2500288486480713e-01 7.9201382398605347e-01</leafValues></_></weakClassifiers></_>
    <!-- stage 7 -->
    <_>
      <maxWeakCount>3</maxWeakCount>
      <stageThreshold>-8.1600952148437500e-01</stageThreshold>
      <weakClassifiers>
        <_>
          <internalNodes>
            0 -1 21 -83362833 -682260057 -2063576581 -50215895
            -1324875573 -897318783 -70695697 -827700562</internalNodes>
          <leafValues>
            -8.3858269453048706e-01 7.5641024112701416e-01</leafValues></_>
        <_>
          <internalNodes>
            0 -1 8 1372838911 839389056 1361105139 928319899 822933919
            -754478321 1848115423 -1074801957</internalNodes>
          <leafValues>
            -7.6618975400924683e-01 7.3553299903869629e-01</leafValues></_>
        <_>
          <internalNodes>
            0 -1 30 -653277441 -586550245 1073759253 -78275638
            -535838657 -804746979 1074578051 -538449153</internalNodes>
          <leafValues>
            -7.1295982599258423e-01 8.0650651454925537e-01</leafValues></_></weakClassifiers></_>
    <!-- stage 8 -->
    <_>
      <maxWeakCount>4</maxWeakCount>
      <stageThreshold>-1.6978439092636108e+00</stageThreshold>
      <weakClassifiers>
        <_>
          <internalNodes>
            0 -1 45 -287567873 -992914973 -721366585 -10014451
            -117249537 -95420160 -1204767574 -6782072</internalNodes>
          <leafValues>
            -9.2672413587570190e-01 7.3063379526138306e-01</leafValues></_>
        <_>
          <internalNodes>
            0 -1 19 -229772293 -745369131 -520015015 -235836963
            -99837617 -108595197 -385844645 -209192437</internalNodes>
          <leafValues>
            -8.1557810306549072e-01 7.4122446775436401e-01</leafValues></_>
        <_>
          <internalNodes>
            0 -1 38 -146689605 -711638569 -2063235595 -788025021
            -1557877877 201363651 -848616905 -758121709</internalNodes>
          <leafValues>
            -7.6008427143096924e-01 7.1923071146011353e-01</leafValues></_>
        <_>
          <internalNodes>
            0 -1 6 1349517311 -757987105 -586688849 58829166 1614322426
            -240549847 1611435150 -36467781</internalNodes>
          <leafValues>
            -7.5225991010665894e-01 7.1685403585433960e-01</leafValues></_></weakClassifiers></_>
    <!-- stage 9 -->
    <_>
      <maxWeakCount>3</maxWeakCount>
      <stageThreshold>-8.1048160791397095e-01</stageThreshold>
      <weakClassifiers>
        <_>
          <internalNodes>
            0 -1 16 -707818561 -134218753 -801120257 -2063 -707817473
            -1729 -540017697 -1</internalNodes>
          <leafValues>
            -7.7007299661636353e-01 7.8136879205703735e-01</leafValues></_>
        <_>
          <internalNodes>
            0 -1 64 -598614017 1208199465 -2129457045 -198185969
            -1901223697 -1467973486 -1035272225 -2002851681</internalNodes>
          <leafValues>
            -6.7733144760131836e-01 8.2481646537780762e-01</leafValues></_>
        <_>
          <internalNodes>
            0 -1 48 142269951 134218055 1360479647 -16674747 -1994274413
            -1701838829 -123696759 -2101602</internalNodes>
          <leafValues>
            -8.6522501707077026e-01 6.4435744285583496e-01</leafValues></_></weakClassifiers></_>
    <!-- stage 10 -->
    <_>
      <maxWeakCount>4</maxWeakCount>
      <stageThreshold>-3.4294110536575317e-01</stageThreshold>
      <weakClassifiers>
        <_>
          <internalNodes>
            0 -1 50 -140005409 285382961 84182143 310612496 605138859
            402677888 689023246 -69666141</internalNodes>
          <leafValues>
            -7.9245281219482422e-01 7.6635515689849854e-01</leafValues></_>
        <_>
          <internalNodes>
            0 -1 25 -197656582 1435570619 -2003775149 -689609255
            -2129007862 -1442209205 -1878786215 -666129591</internalNodes>
          <leafValues>
            -8.3732545375823975e-01 6.7170625925064087e-01</leafValues></_>
        <_>
          <internalNodes>
            0 -1 18 -246473761 1023480081 424774679 -1110068329
            -2138009361 1744930947 -2004543093 1000818754</internalNodes>
          <leafValues>
            -8.5867929458618164e-01 6.5281516313552856e-01</leafValues></_>
        <_>
          <internalNodes>
            0 -1 39 -216143174 -205463552 1090814037 1395773462
            -775782215 1300269068 -385839879 1002897209</internalNodes>
          <leafValues>
            -8.3717095851898193e-01 6.3648474216461182e-01</leafValues></_></weakClassifiers></_>
    <!-- stage 11 -->
    <_>
      <maxWeakCount>3</maxWeakCount>
      <stageThreshold>-8.2564789056777954e-01</stageThreshold>
      <weakClassifiers>
        <_>
          <internalNodes>
            0 -1 51 -285217025 1065353215 587181822 1056964607
            2130702079 268435455 -84345089 -1</internalNodes>
          <leafValues>
            -7.3404252529144287e-01 7.8571426868438721e-01</leafValues></_>
        <_>
          <internalNodes>
            0 -1 28 -1757352019 -615280233 1946816849 -640100016
            1935298287 -1386053462 1071667642 -74721045</internalNodes>
          <leafValues>
            -8.9504742622375488e-01 6.3011294603347778e-01</leafValues></_>
        <_>
          <internalNodes>
            0 -1 60 -248390145 -1114113 2147442175 -41473 1442174461
            -143130627 -33595905 -100688393</internalNodes>
          <leafValues>
            -6.9603937864303589e-01 8.0344206094741821e-01</leafValues></_></weakClassifiers></_>
    <!-- stage 12 -->
    <_>
      <maxWeakCount>3</maxWeakCount>
      <stageThreshold>-8.0073517560958862e-01</stageThreshold>
      <weakClassifiers>
        <_>
          <internalNodes>
            0 -1 65 -1141129217 -1141113219 -1107312705 -1077952593
            -4259841 -1347502146 -1074021183 -1079066689</internalNodes>
          <leafValues>
            -7.1075838804244995e-01 7.7734750509262085e-01</leafValues></_>
        <_>
          <internalNodes>
            0 -1 4 -134221577 -1 -167774209 2147483647 -234884745 -2049
            -201328641 2147483647</internalNodes>
          <leafValues>
            -6.8915522098541260e-01 7.5328648090362549e-01</leafValues></_>
        <_>
          <internalNodes>
            0 -1 22 -720262761 -641639853 1275189121 -16703228
            1149750395 -180318030 1444989593 -72496496</internalNodes>
          <leafValues>
            -8.8892751932144165e-01 6.1403536796569824e-01</leafValues></_></weakClassifiers></_>
    <!-- stage 13 -->
    <_>
      <maxWeakCount>4</maxWeakCount>
      <stageThreshold>-1.6039738655090332e+00</stageThreshold>
      <weakClassifiers>
        <_>
          <internalNodes>
            0 -1 56 -234378363 -1337946087 -804969519 -704519671
            -1606350347 671088914 -771750220 -628360057</internalNodes>
          <leafValues>
            -8.5120350122451782e-01 6.9028872251510620e-01</leafValues></_>
        <_>
          <internalNodes>
            0 -1 11 1575876571 285338583 -2293889 625344510 -1
            1341652991 -1 -537919617</internalNodes>
          <leafValues>
            -6.9067507982254028e-01 7.5827831029891968e-01</leafValues></_>
        <_>
          <internalNodes>
            0 -1 31 -207901525 -257507327 -2146074315 -1794867185
            -81820637 -71301055 -1533304162 -1916011601</internalNodes>
          <leafValues>
            -7.7179992198944092e-01 6.9151973724365234e-01</leafValues></_>
        <_>
          <internalNodes>
            0 -1 24 -789523497 -587005941 -784252651 -788059887
            -1609968612 -939458524 -1073676263 1561317001</internalNodes>
          <leafValues>
            -7.5361502170562744e-01 7.0399063825607300e-01</leafValues></_></weakClassifiers></_>
    <!-- stage 14 -->
    <_>
      <maxWeakCount>4</maxWeakCount>
      <stageThreshold>-1.3063170909881592e+00</stageThreshold>
      <weakClassifiers>
        <_>
          <internalNodes>
            0 -1 29 -120521761 -117304054 -1798875651 352537859
            -1304357880 -1459027709 -1517977383 1158662751</internalNodes>
          <leafValues>
            -8.2932168245315552e-01 6.8153983354568481e-01</leafValues></_>
        <_>
          <internalNodes>
            0 -1 52 -227740419 408130131 -2012983599 840778323
            -938158887 62556288 -100619523 -69215079</internalNodes>
          <leafValues>
            -6.6267812252044678e-01 7.5879389047622681e-01</leafValues></_>
        <_>
          <internalNodes>
            0 -1 63 1372934655 1342216692 1261998 -163539959 -1869698371
            -2008964981 -1199275846 -861292402</internalNodes>
          <leafValues>
            -7.1592658758163452e-01 7.0596718788146973e-01</leafValues></_>
        <_>
          <internalNodes>
            0 -1 0 -11925 -470119201 -67108929 -1243676690 1434411356
            -45713 2147442541 -67240193</internalNodes>
          <leafValues>
            -6.0925215482711792e-01 8.1353282928466797e-01</leafValues></_></weakClassifiers></_>
    <!-- stage 15 -->
    <_>
      <maxWeakCount>4</maxWeakCount>
      <stageThreshold>-3.5432294011116028e-01</stageThreshold>
      <weakClassifiers>
        <_>
          <internalNodes>
            0 -1 36 -943608921 -586888381 -989689939 -82803753
            -825783931 -237839423 -12386650 -76613245</internalNodes>
          <leafValues>
            -7.9209977388381958e-01 6.9794458150863647e-01</leafValues></_>
        <_>
          <internalNodes>
            0 -1 67 -8654866 101238022 -2045138738 -1935164853
            -2145738101 -1475341696 -1429503838 -338976069</internalNodes>
          <leafValues>
            -7.6447141170501709e-01 6.4707434177398682e-01</leafValues></_>
        <_>
          <internalNodes>
            0 -1 47 -7393007 1368578049 -1056858997 1367832321
            1850081907 1518534738 -402578487 -842006753</internalNodes>
          <leafValues>
            -7.9579180479049683e-01 5.9759563207626343e-01</leafValues></_>
        <_>
          <internalNodes>
            0 -1 15 -753077390 -955661101 -1073741757 -719355111
            -1400848255 -780074368 176925825 -45776895</internalNodes>
          <leafValues>
            -8.0689311027526855e-01 6.0612738132476807e-01</leafValues></_></weakClassifiers></_>
    <!-- stage 16 -->
    <_>
      <maxWeakCount>4</maxWeakCount>
      <stageThreshold>-3.1703943014144897e-01</stageThreshold>
      <weakClassifiers>
        <_>
          <internalNodes>
            0 -1 5 -683609997 -251473893 1351414031 1430307852
            -1602162367 -964652415 1426170335 1940832959</internalNodes>
          <leafValues>
            -8.1818181276321411e-01 6.6927760839462280e-01</leafValues></_>
        <_>
          <internalNodes>
            0 -1 53 -649595442 -821591134 1073808506 1460077635
            -1744659580 -1040088703 -1028947461 -414220145</internalNodes>
          <leafValues>
            -7.0650565624237061e-01 7.0185160636901855e-01</leafValues></_>
        <_>
          <internalNodes>
            0 -1 57 -1940925441 -1906847681 1409651394 -1329389485
            -661025825 -33521503 -1186299493 820465343</internalNodes>
          <leafValues>
            -7.8187239170074463e-01 6.2929040193557739e-01</leafValues></_>
        <_>
          <internalNodes>
            0 -1 55 -909145585 1162060331 2654227 -121257917 -1073487866
            2105377 840810575 1747664906</internalNodes>
          <leafValues>
            -8.2999962568283081e-01 5.8187478780746460e-01</leafValues></_></weakClassifiers></_>
    <!-- stage 17 -->
    <_>
      <maxWeakCount>4</maxWeakCount>
      <stageThreshold>-1.6223645210266113e+00</stageThreshold>
      <weakClassifiers>
        <_>
          <internalNodes>
            0 -1 54 6474699 135555 411296605 789561675 -1719021173
            -888896493 2064634667 -18110297</internalNodes>
          <leafValues>
            -8.6270022392272949e-01 6.6809976100921631e-01</leafValues></_>
        <_>
          <internalNodes>
            0 -1 58 -801907233 -762597047 403707947 -637386749
            1080000651 -2113896310 2113706 -559179381</internalNodes>
          <leafValues>
            -6.8136799335479736e-01 6.9074797630310059e-01</leafValues></_>
        <_>
          <internalNodes>
            0 -1 49 -2524809 1574367581 151028637 499233157 1535445687
            13287424 -1421016167 -1415403133</internalNodes>
          <leafValues>
            -7.7293741703033447e-01 6.0146546363830566e-01</leafValues></_>
        <_>
          <internalNodes>
            0 -1 66 1226045307 134549905 -1827413549 -2004278878
            -1577025397 -2013134848 587965354 -2004443110</internalNodes>
          <leafValues>
            -8.3615881204605103e-01 6.2019819021224976e-01</leafValues></_></weakClassifiers></_>
    <!-- stage 18 -->
    <_>
      <maxWeakCount>5</maxWeakCount>
      <stageThreshold>-9.1183406114578247e-01</stageThreshold>
      <weakClassifiers>
        <_>
          <internalNodes>
            0 -1 13 1494348973 1896968528 -129830379 -130681839
            1384220847 1891759857 1418838968 -257830347</internalNodes>
          <leafValues>
            -7.4257427453994751e-01 7.0776253938674927e-01</leafValues></_>
        <_>
          <internalNodes>
            0 -1 41 -134801923 1060317953 1411466459 -712806051
            -1610085865 -41451520 -1878910453 1422621707</internalNodes>
          <leafValues>
            -7.2131264209747314e-01 6.6094350814819336e-01</leafValues></_>
        <_>
          <internalNodes>
            0 -1 62 -2028416041 -414080683 -1794554403 -11434923
            -2146401893 -906434560 -1686099829 -1502608640</internalNodes>
          <leafValues>
            -6.7752742767333984e-01 7.2099441289901733e-01</leafValues></_>
        <_>
          <internalNodes>
            0 -1 2 -1002061073 -1006534063 -2147471287 1023495193
            -1073691129 -2013228790 -392166073 -1224641935</internalNodes>
          <leafValues>
            -7.7927803993225098e-01 6.3561457395553589e-01</leafValues></_>
        <_>
          <internalNodes>
            0 -1 61 -805257016 -720846720 1086341312 -796884967
            -1073184126 -838858624 -1040084856 -234782710</internalNodes>
          <leafValues>
            -7.3262506723403931e-01 6.2660217285156250e-01</leafValues></_></weakClassifiers></_>
    <!-- stage 19 -->
    <_>
      <maxWeakCount>4</maxWeakCount>
      <stageThreshold>-1.3713879585266113e+00</stageThreshold>
      <weakClassifiers>
        <_>
          <internalNodes>
            0 -1 26 -808469505 1610612735 -1 -2 -806376449 -536870913
            -1064961 -4097</internalNodes>
          <leafValues>
            -6.7850464582443237e-01 7.1643191576004028e-01</leafValues></_>
        <_>
          <internalNodes>
            0 -1 7 -214755781 -142113587 424677641 -570603964 -799807253
            688499329 146843851 253487235</internalNodes>
          <leafValues>
            -7.6507395505905151e-01 5.8601272106170654e-01</leafValues></_>
        <_>
          <internalNodes>
            0 -1 35 -1864269 -224468209 1883283607 -788443379 -88571362
            -1740603133 -1933465685 -571802857</internalNodes>
          <leafValues>
            -6.6816711425781250e-01 6.7802113294601440e-01</leafValues></_>
        <_>
          <internalNodes>
            0 -1 1 -345015572 -147882081 -1 -33619972 -17825841
            522174382 2004873215 2147483647</internalNodes>
          <leafValues>
            -6.5457880496978760e-01 7.0362710952758789e-01</leafValues></_></weakClassifiers></_></stages>
  <features>
    <_>
      <rect>
        6 20 14 6</rect></_>
    <_>
      <rect>
        10 3 22 12</rect></_>
    <_>
      <rect>
        15 0 9 8</rect></_>
    <_>
      <rect>
        17 16 11 3</rect></_>
    <_>
      <rect>
        19 12 8 5</rect></_>
    <_>
      <rect>
        21 11 6 5</rect></_>
    <_>
      <rect>
        21 19 13 4</rect></_>
    <_>
      <rect>
        22 18 8 5</rect></_>
    <_>
      <rect>
        22 18 11 6</rect></_>
    <_>
      <rect>
        22 19 11 5</rect></_>
    <_>
      <rect>
        22 20 9 4</rect></_>
    <_>
      <rect>
        23 16 13 8</rect></_>
    <_>
      <rect>
        24 11 8 3</rect></_>
    <_>
      <rect>
        24 14 9 3</rect></_>
    <_>
      <rect>
        24 17 11 5</rect></_>
    <_>
      <rect>
        25 7 9 4</rect></_>
    <_>
      <rect>
        25 12 8 5</rect></_>
    <_>
      <rect>
        25 13 7 3</rect></_>
    <_>
      <rect>
        25 22 6 3</rect></_>
    <_>
      <rect>
        26 12 7 3</rect></_>
    <_>
      <rect>
        26 12 8 4</rect></_>
    <_>
      <rect>
        26 15 6 2</rect></_>
    <_>
      <rect>
        26 17 6 2</rect></_>
    <_>
      <rect>
        26 19 8 5</rect></_>
    <_>
      <rect>
        26 20 7 4</rect></_>
    <_>
      <rect>
        27 11 6 3</rect></_>
    <_>
      <rect>
        27 12 8 5</rect></_>
    <_>
      <rect>
        27 14 5 5</rect></_>
    <_>
      <rect>
        27 16 6 2</rect></_>
    <_>
      <rect>
        27 20 7 4</rect></_>
    <_>
      <rect>
        28 4 4 7</rect></_>
    <_>
      <rect>
        28 12 3 5</rect></_>
    <_>
      <rect>
        28 13 6 4</rect></_>
    <_>
      <rect>
        28 13 11 4</rect></_>
    <_>
      <rect>
        28 14 7 4</rect></_>
    <_>
      <rect>
        29 9 3 6</rect></_>
    <_>
      <rect>
        29 9 6 7</rect></_>
    <_>
      <rect>
        29 14 3 4</rect></_>
    <_>
      <rect>
        30 12 3 5</rect></_>
    <_>
      <rect>
        30 13 3 3</rect></_>
    <_>
      <rect>
        30 13 5 4</rect></_>
    <_>
      <rect>
        30 20 5 5</rect></_>
    <_>
      <rect>
        31 11 5 6</rect></_>
    <_>
      <rect>
        31 18 4 3</rect></_>
    <_>
      <rect>
        31 18 5 2</rect></_>
    <_>
      <rect>
        31 18 6 2</rect></_>
    <_>
      <rect>
        32 10 3 5</rect></_>
    <_>
      <rect>
        32 12 2 5</rect></_>
    <_>
      <rect>
        32 20 4 2</rect></_>
    <_>
      <rect>
        33 15 2 3</rect></_>
    <_>
      <rect>
        34 13 2 4</rect></_>
    <_>
      <rect>
        34 16 2 2</rect></_>
    <_>
      <rect>
        34 17 2 1</rect></_>
    <_>
      <rect>
        35 9 4 3</rect></_>
    <_>
      <rect>
        35 20 3 2</rect></_>
    <_>
      <rect>
        36 5 2 5</rect></_>
    <_>
      <rect>
        36 14 2 3</rect></_>
    <_>
      <rect>
        36 19 7 5</rect></_>
    <_>
      <rect>
        37 9 4 8</rect></_>
    <_>
      <rect>
        37 15 2 2</rect></_>
    <_>
      <rect>
        38 9 3 8</rect></_>
    <_>
      <rect>
        39 19 1 1</rect></_>
    <_>
      <rect>
        40 14 5 2</rect></_>
    <_>
      <rect>
        41 20 5 2</rect></_>
    <_>
      <rect>
        41 21 6 3</rect></_>
    <_>
      <rect>
        42 16 4 2</rect></_>
    <_>
      <rect>
        42 19 6 3</rect></_>
    <_>
      <rect>
        45 16 6 5</rect></_></features></cascade>
</opencv_storage>
