<?xml version="1.0"?>
<opencv_storage>
<stage18>
  <maxWeakCount>5</maxWeakCount>
  <stageThreshold>-9.1183406114578247e-01</stageThreshold>
  <weakClassifiers>
    <_>
      <internalNodes>
        0 -1 143202 1494348973 1896968528 -129830379 -130681839
        1384220847 1891759857 1418838968 -257830347</internalNodes>
      <leafValues>
        -7.4257427453994751e-01 7.0776253938674927e-01</leafValues></_>
    <_>
      <internalNodes>
        0 -1 170880 -134801923 1060317953 1411466459 -712806051
        -1610085865 -41451520 -1878910453 1422621707</internalNodes>
      <leafValues>
        -7.2131264209747314e-01 6.6094350814819336e-01</leafValues></_>
    <_>
      <internalNodes>
        0 -1 208189 -2028416041 -414080683 -1794554403 -11434923
        -2146401893 -906434560 -1686099829 -1502608640</internalNodes>
      <leafValues>
        -6.7752742767333984e-01 7.2099441289901733e-01</leafValues></_>
    <_>
      <internalNodes>
        0 -1 93711 -1002061073 -1006534063 -2147471287 1023495193
        -1073691129 -2013228790 -392166073 -1224641935</internalNodes>
      <leafValues>
        -7.7927803993225098e-01 6.3561457395553589e-01</leafValues></_>
    <_>
      <internalNodes>
        0 -1 205270 -805257016 -720846720 1086341312 -796884967
        -1073184126 -838858624 -1040084856 -234782710</internalNodes>
      <leafValues>
        -7.3262506723403931e-01 6.2660217285156250e-01</leafValues></_></weakClassifiers></stage18>
</opencv_storage>
