<?xml version="1.0"?>
<opencv_storage>
<stage4>
  <maxWeakCount>4</maxWeakCount>
  <stageThreshold>-3.8983342051506042e-01</stageThreshold>
  <weakClassifiers>
    <_>
      <internalNodes>
        0 -1 161503 -819878081 -638453541 -1052065313 -943072806
        -754445873 -254639941 -939488600 -7471464</internalNodes>
      <leafValues>
        -9.0688258409500122e-01 7.6672697067260742e-01</leafValues></_>
    <_>
      <internalNodes>
        0 -1 161320 -576487265 -78002743 -2029877091 1896063447
        -1992261445 1258913920 -430798165 1867235275</internalNodes>
      <leafValues>
        -8.9320617914199829e-01 6.5327203273773193e-01</leafValues></_>
    <_>
      <internalNodes>
        0 -1 169392 -657471473 -666779253 -2142125675 1900236879
        -2143031685 1627527169 -1031165121 -84159973</internalNodes>
      <leafValues>
        -7.3786437511444092e-01 7.6594430208206177e-01</leafValues></_>
    <_>
      <internalNodes>
        0 -1 194736 -250946918 553652359 -1526726375 731251027
        -121402885 -398557181 -209147745 -5244017</internalNodes>
      <leafValues>
        -8.4906542301177979e-01 6.4431101083755493e-01</leafValues></_></weakClassifiers></stage4>
</opencv_storage>
