<?xml version="1.0"?>
<opencv_storage>
<stage10>
  <maxWeakCount>5</maxWeakCount>
  <stageThreshold>-1.1172038316726685e+00</stageThreshold>
  <weakClassifiers>
    <_>
      <internalNodes>
        0 -1 166027 -1525870593 -1002383101 1619021897 -712318710
        -291968062 -928460672 -1073720704 -386784699</internalNodes>
      <leafValues>
        -8.4862387180328369e-01 6.6151201725006104e-01</leafValues></_>
    <_>
      <internalNodes>
        0 -1 162343 858913623 790693147 873267289 -279379955 1108447379
        -20479918 -2104393522 -275054520</internalNodes>
      <leafValues>
        -7.4566155672073364e-01 6.2487870454788208e-01</leafValues></_>
    <_>
      <internalNodes>
        0 -1 174928 -1941896993 2130771968 942675440 1057819009
        -1862172487 2063802432 -1702719352 -82136446</internalNodes>
      <leafValues>
        -7.9636949300765991e-01 6.1894631385803223e-01</leafValues></_>
    <_>
      <internalNodes>
        0 -1 132926 -780090990 -981425972 1073791339 -587136247
        -1073680189 -1040135038 -67069309 1912862758</internalNodes>
      <leafValues>
        -7.4657702445983887e-01 6.8289256095886230e-01</leafValues></_>
    <_>
      <internalNodes>
        0 -1 132987 1410400799 2056470978 335643925 -582676063
        -1744381429 -1950317237 -493575957 -73493279</internalNodes>
      <leafValues>
        -7.5981903076171875e-01 6.4948779344558716e-01</leafValues></_></weakClassifiers></stage10>
</opencv_storage>
