<?xml version="1.0"?>
<opencv_storage>
<stage13>
  <maxWeakCount>5</maxWeakCount>
  <stageThreshold>-1.0108008384704590e+00</stageThreshold>
  <weakClassifiers>
    <_>
      <internalNodes>
        0 -1 178214 526118167 -753414275 269391687 -534055868 198034443
        -212089570 -368459106 -1045741553</internalNodes>
      <leafValues>
        -7.7096116542816162e-01 6.9936990737915039e-01</leafValues></_>
    <_>
      <internalNodes>
        0 -1 165591 1431816533 1410449495 1073791211 1088757891
        -627340623 -343179135 -427193621 -108306165</internalNodes>
      <leafValues>
        -7.5921720266342163e-01 6.3310617208480835e-01</leafValues></_>
    <_>
      <internalNodes>
        0 -1 52866 -174613304 -77232871 -1990393395 -1078121201
        1284016570 -2088157014 -304162625 823122575</internalNodes>
      <leafValues>
        -8.2145082950592041e-01 5.6045925617218018e-01</leafValues></_>
    <_>
      <internalNodes>
        0 -1 212038 1623521789 134842579 268471555 -920092671
        -1744797463 -276260160 -1425520465 -308084207</internalNodes>
      <leafValues>
        -6.7949759960174561e-01 6.9717890024185181e-01</leafValues></_>
    <_>
      <internalNodes>
        0 -1 151493 1093706795 1610727431 -805264937 -753958307
        562221247 206667780 1249937119 -80033507</internalNodes>
      <leafValues>
        -7.5390762090682983e-01 6.4554184675216675e-01</leafValues></_></weakClassifiers></stage13>
</opencv_storage>
