<?xml version="1.0"?>
<opencv_storage>
<stage5>
  <maxWeakCount>4</maxWeakCount>
  <stageThreshold>-4.3359860777854919e-01</stageThreshold>
  <weakClassifiers>
    <_>
      <internalNodes>
        0 -1 178043 -664799297 370378753 146971435 218333727 2084889599
        1946392642 -2117494645 -1144280373</internalNodes>
      <leafValues>
        -9.0944880247116089e-01 7.8937727212905884e-01</leafValues></_>
    <_>
      <internalNodes>
        0 -1 157468 -615647745 -241919787 2131316829 -82488696 134225947
        -90074968 1527800763 -289808216</internalNodes>
      <leafValues>
        -8.5682255029678345e-01 7.5389045476913452e-01</leafValues></_>
    <_>
      <internalNodes>
        0 -1 130917 -1299033637 -255079083 20996549 -1281645691
        -527887377 -2104618837 -1951414033 -488051985</internalNodes>
      <leafValues>
        -9.2840892076492310e-01 6.4402371644973755e-01</leafValues></_>
    <_>
      <internalNodes>
        0 -1 190137 -721188213 655401423 32985 -1848605541 1107329729
        836489 -1878783857 -87303954</internalNodes>
      <leafValues>
        -9.0047115087509155e-01 6.8864905834197998e-01</leafValues></_></weakClassifiers></stage5>
</opencv_storage>
