<?xml version="1.0"?>
<opencv_storage>
<stage14>
  <maxWeakCount>4</maxWeakCount>
  <stageThreshold>-1.6372867822647095e+00</stageThreshold>
  <weakClassifiers>
    <_>
      <internalNodes>
        0 -1 205187 -787380941 -238480673 29369549 -1857519314 -73329419
        -1096089461 -1987175701 -359986245</internalNodes>
      <leafValues>
        -7.3930752277374268e-01 6.8800723552703857e-01</leafValues></_>
    <_>
      <internalNodes>
        0 -1 79507 -1862153737 -106592113 1073744989 -246087419
        546344123 -26722296 -1848114995 -1650521574</internalNodes>
      <leafValues>
        -7.0530098676681519e-01 6.5582311153411865e-01</leafValues></_>
    <_>
      <internalNodes>
        0 -1 178471 -655491073 2121499141 683772933 965785856 -81474913
        2064419230 -1383432114 -1461742400</internalNodes>
      <leafValues>
        -8.4289467334747314e-01 5.3142267465591431e-01</leafValues></_>
    <_>
      <internalNodes>
        0 -1 232296 1141002399 -2135949248 16889889 1749025028 35943507
        -1065023064 -1802411789 -102557375</internalNodes>
      <leafValues>
        -7.7709835767745972e-01 5.8112567663192749e-01</leafValues></_></weakClassifiers></stage14>
</opencv_storage>
